digraph Tree {
node [shape=box, style="filled, rounded", color="black", fontname="helvetica"] ;
edge [fontname="helvetica"] ;
0 [label="page_values <= 0.0\nentropy = 1.0\nsamples = 8543\nvalue = [4271.5, 4271.5]\nclass = No Revenue", fillcolor="#ffffff"] ;
1 [label="month <= 0.722\nentropy = 0.676\nsamples = 6632\nvalue = [3778.977, 818.491]\nclass = No Revenue", fillcolor="#eb9c64"] ;
0 -> 1 [labeldistance=2.5, labelangle=45, headlabel="True"] ;
2 [label="month <= 0.5\nentropy = 0.343\nsamples = 4639\nvalue = [2715.102, 185.439]\nclass = No Revenue", fillcolor="#e78a47"] ;
1 -> 2 ;
3 [label="administrative_duration <= 0.0\nentropy = 0.64\nsamples = 1671\nvalue = [956.005, 185.439]\nclass = No Revenue", fillcolor="#ea995f"] ;
2 -> 3 ;
4 [label="entropy = 0.309\nsamples = 929\nvalue = [544.68, 31.972]\nclass = No Revenue", fillcolor="#e78845"] ;
3 -> 4 ;
5 [label="entropy = 0.844\nsamples = 742\nvalue = [411.325, 153.467]\nclass = No Revenue", fillcolor="#efb083"] ;
3 -> 5 ;
6 [label="entropy = -0.0\nsamples = 2968\nvalue = [1759.097, 0.0]\nclass = No Revenue", fillcolor="#e58139"] ;
2 -> 6 ;
7 [label="product_related_duration <= 0.03\nentropy = 0.953\nsamples = 1993\nvalue = [1063.874, 633.052]\nclass = No Revenue", fillcolor="#f4ccaf"] ;
1 -> 7 ;
8 [label="exit_rates <= 0.542\nentropy = 0.88\nsamples = 1572\nvalue = [863.546, 367.682]\nclass = No Revenue", fillcolor="#f0b78d"] ;
7 -> 8 ;
9 [label="entropy = 0.903\nsamples = 1427\nvalue = [778.199, 364.484]\nclass = No Revenue", fillcolor="#f1bc96"] ;
8 -> 9 ;
10 [label="entropy = 0.224\nsamples = 145\nvalue = [85.347, 3.197]\nclass = No Revenue", fillcolor="#e68640"] ;
8 -> 10 ;
11 [label="month <= 0.833\nentropy = 0.986\nsamples = 421\nvalue = [200.328, 265.37]\nclass = Revenue", fillcolor="#cee7f9"] ;
7 -> 11 ;
12 [label="entropy = 0.964\nsamples = 355\nvalue = [162.989, 255.778]\nclass = Revenue", fillcolor="#b7dbf6"] ;
11 -> 12 ;
13 [label="entropy = 0.731\nsamples = 66\nvalue = [37.339, 9.592]\nclass = No Revenue", fillcolor="#eca16c"] ;
11 -> 13 ;
14 [label="bounce_rates <= 0.002\nentropy = 0.543\nsamples = 1911\nvalue = [492.523, 3453.009]\nclass = Revenue", fillcolor="#55abe9"] ;
0 -> 14 [labeldistance=2.5, labelangle=-45, headlabel="False"] ;
15 [label="page_values <= 0.041\nentropy = 0.338\nsamples = 856\nvalue = [134.54, 2011.058]\nclass = Revenue", fillcolor="#46a4e7"] ;
14 -> 15 ;
16 [label="product_related <= 0.055\nentropy = 0.613\nsamples = 257\nvalue = [74.679, 418.837]\nclass = Revenue", fillcolor="#5caeea"] ;
15 -> 16 ;
17 [label="entropy = 0.473\nsamples = 135\nvalue = [30.227, 268.567]\nclass = Revenue", fillcolor="#4fa8e8"] ;
16 -> 17 ;
18 [label="entropy = 0.775\nsamples = 122\nvalue = [44.452, 150.27]\nclass = Revenue", fillcolor="#74baed"] ;
16 -> 18 ;
19 [label="administrative_duration <= 0.005\nentropy = 0.225\nsamples = 599\nvalue = [59.861, 1592.221]\nclass = Revenue", fillcolor="#40a1e6"] ;
15 -> 19 ;
20 [label="entropy = 0.073\nsamples = 219\nvalue = [5.927, 668.221]\nclass = Revenue", fillcolor="#3b9ee5"] ;
19 -> 20 ;
21 [label="entropy = 0.308\nsamples = 380\nvalue = [53.935, 924.0]\nclass = Revenue", fillcolor="#45a3e7"] ;
19 -> 21 ;
22 [label="month <= 0.722\nentropy = 0.72\nsamples = 1055\nvalue = [357.983, 1441.951]\nclass = Revenue", fillcolor="#6ab5eb"] ;
14 -> 22 ;
23 [label="product_related_duration <= 0.021\nentropy = 0.824\nsamples = 627\nvalue = [242.409, 696.996]\nclass = Revenue", fillcolor="#7ebfee"] ;
22 -> 23 ;
24 [label="entropy = 0.631\nsamples = 232\nvalue = [69.344, 367.682]\nclass = Revenue", fillcolor="#5eafea"] ;
23 -> 24 ;
25 [label="entropy = 0.929\nsamples = 395\nvalue = [173.065, 329.315]\nclass = Revenue", fillcolor="#a1d1f3"] ;
23 -> 25 ;
26 [label="exit_rates <= 0.101\nentropy = 0.569\nsamples = 428\nvalue = [115.574, 744.955]\nclass = Revenue", fillcolor="#58ace9"] ;
22 -> 26 ;
27 [label="entropy = 0.436\nsamples = 210\nvalue = [43.266, 438.021]\nclass = Revenue", fillcolor="#4da7e8"] ;
26 -> 27 ;
28 [label="entropy = 0.703\nsamples = 218\nvalue = [72.308, 306.934]\nclass = Revenue", fillcolor="#68b4eb"] ;
26 -> 28 ;
}